digraph Tree {
node [shape=box, style="filled, rounded", color="black", fontname=helvetica] ;
edge [fontname=helvetica] ;
0 [label=<Total_Road_Length(KM) &le; 21.75<br/>gini = 0.5745<br/>samples = 59<br/>value = [15, 34, 10]<br/>class = medium>, fillcolor="#39e5816e"] ;
1 [label=<gini = 0.0<br/>samples = 4<br/>value = [4, 0, 0]<br/>class = low>, fillcolor="#e58139ff"] ;
0 -> 1 [labeldistance=2.5, labelangle=45, headlabel="True"] ;
2 [label=<Irrigation_Ratio(HA) &le; 0.994<br/>gini = 0.5448<br/>samples = 55<br/>value = [11, 34, 10]<br/>class = medium>, fillcolor="#39e58185"] ;
0 -> 2 [labeldistance=2.5, labelangle=-45, headlabel="False"] ;
3 [label=<Total_Road_Length(KM) &le; 93.235<br/>gini = 0.5343<br/>samples = 54<br/>value = [11, 34, 9]<br/>class = medium>, fillcolor="#39e58188"] ;
2 -> 3 ;
4 [label=<Total_Road_Length(KM) &le; 88.67<br/>gini = 0.4152<br/>samples = 17<br/>value = [5, 12, 0]<br/>class = medium>, fillcolor="#39e58195"] ;
3 -> 4 ;
5 [label=<Irrigation_Ratio(HA) &le; 0.2176<br/>gini = 0.375<br/>samples = 16<br/>value = [4, 12, 0]<br/>class = medium>, fillcolor="#39e581aa"] ;
4 -> 5 ;
6 [label=<Irrigation_Ratio(HA) &le; 0.1137<br/>gini = 0.48<br/>samples = 10<br/>value = [4, 6, 0]<br/>class = medium>, fillcolor="#39e58155"] ;
5 -> 6 ;
7 [label=<gini = 0.0<br/>samples = 3<br/>value = [0, 3, 0]<br/>class = medium>, fillcolor="#39e581ff"] ;
6 -> 7 ;
8 [label=<Total_Road_Length(KM) &le; 64.435<br/>gini = 0.4898<br/>samples = 7<br/>value = [4, 3, 0]<br/>class = low>, fillcolor="#e5813940"] ;
6 -> 8 ;
9 [label=<gini = 0.0<br/>samples = 3<br/>value = [3, 0, 0]<br/>class = low>, fillcolor="#e58139ff"] ;
8 -> 9 ;
10 [label=<gini = 0.375<br/>samples = 4<br/>value = [1, 3, 0]<br/>class = medium>, fillcolor="#39e581aa"] ;
8 -> 10 ;
11 [label=<gini = 0.0<br/>samples = 6<br/>value = [0, 6, 0]<br/>class = medium>, fillcolor="#39e581ff"] ;
5 -> 11 ;
12 [label=<gini = 0.0<br/>samples = 1<br/>value = [1, 0, 0]<br/>class = low>, fillcolor="#e58139ff"] ;
4 -> 12 ;
13 [label=<Total_Road_Length(KM) &le; 137.31<br/>gini = 0.561<br/>samples = 37<br/>value = [6, 22, 9]<br/>class = medium>, fillcolor="#39e58176"] ;
3 -> 13 ;
14 [label=<Irrigation_Ratio(HA) &le; 0.1644<br/>gini = 0.642<br/>samples = 9<br/>value = [2, 3, 4]<br/>class = high>, fillcolor="#8139e52a"] ;
13 -> 14 ;
15 [label=<gini = 0.0<br/>samples = 2<br/>value = [0, 2, 0]<br/>class = medium>, fillcolor="#39e581ff"] ;
14 -> 15 ;
16 [label=<Total_Road_Length(KM) &le; 132.275<br/>gini = 0.5714<br/>samples = 7<br/>value = [2, 1, 4]<br/>class = high>, fillcolor="#8139e566"] ;
14 -> 16 ;
17 [label=<Irrigation_Ratio(HA) &le; 0.3942<br/>gini = 0.375<br/>samples = 4<br/>value = [0, 1, 3]<br/>class = high>, fillcolor="#8139e5aa"] ;
16 -> 17 ;
18 [label=<gini = 0.5<br/>samples = 2<br/>value = [0, 1, 1]<br/>class = medium>, fillcolor="#39e58100"] ;
17 -> 18 ;
19 [label=<gini = 0.0<br/>samples = 2<br/>value = [0, 0, 2]<br/>class = high>, fillcolor="#8139e5ff"] ;
17 -> 19 ;
20 [label=<Irrigation_Ratio(HA) &le; 0.2102<br/>gini = 0.4444<br/>samples = 3<br/>value = [2, 0, 1]<br/>class = low>, fillcolor="#e581397f"] ;
16 -> 20 ;
21 [label=<gini = 0.0<br/>samples = 1<br/>value = [0, 0, 1]<br/>class = high>, fillcolor="#8139e5ff"] ;
20 -> 21 ;
22 [label=<gini = 0.0<br/>samples = 2<br/>value = [2, 0, 0]<br/>class = low>, fillcolor="#e58139ff"] ;
20 -> 22 ;
23 [label=<Irrigation_Ratio(HA) &le; 0.1095<br/>gini = 0.4872<br/>samples = 28<br/>value = [4, 19, 5]<br/>class = medium>, fillcolor="#39e5819b"] ;
13 -> 23 ;
24 [label=<Irrigation_Ratio(HA) &le; 0.0682<br/>gini = 0.5<br/>samples = 4<br/>value = [2, 2, 0]<br/>class = low>, fillcolor="#e5813900"] ;
23 -> 24 ;
25 [label=<gini = 0.0<br/>samples = 1<br/>value = [0, 1, 0]<br/>class = medium>, fillcolor="#39e581ff"] ;
24 -> 25 ;
26 [label=<Total_Road_Length(KM) &le; 169.33<br/>gini = 0.4444<br/>samples = 3<br/>value = [2, 1, 0]<br/>class = low>, fillcolor="#e581397f"] ;
24 -> 26 ;
27 [label=<gini = 0.0<br/>samples = 2<br/>value = [2, 0, 0]<br/>class = low>, fillcolor="#e58139ff"] ;
26 -> 27 ;
28 [label=<gini = 0.0<br/>samples = 1<br/>value = [0, 1, 0]<br/>class = medium>, fillcolor="#39e581ff"] ;
26 -> 28 ;
29 [label=<Irrigation_Ratio(HA) &le; 0.3662<br/>gini = 0.4479<br/>samples = 24<br/>value = [2, 17, 5]<br/>class = medium>, fillcolor="#39e581a1"] ;
23 -> 29 ;
30 [label=<Total_Road_Length(KM) &le; 146.6<br/>gini = 0.4938<br/>samples = 9<br/>value = [0, 5, 4]<br/>class = medium>, fillcolor="#39e58133"] ;
29 -> 30 ;
31 [label=<gini = 0.0<br/>samples = 3<br/>value = [0, 3, 0]<br/>class = medium>, fillcolor="#39e581ff"] ;
30 -> 31 ;
32 [label=<gini = 0.4444<br/>samples = 6<br/>value = [0, 2, 4]<br/>class = high>, fillcolor="#8139e57f"] ;
30 -> 32 ;
33 [label=<Irrigation_Ratio(HA) &le; 0.752<br/>gini = 0.3378<br/>samples = 15<br/>value = [2, 12, 1]<br/>class = medium>, fillcolor="#39e581c4"] ;
29 -> 33 ;
34 [label=<gini = 0.0<br/>samples = 8<br/>value = [0, 8, 0]<br/>class = medium>, fillcolor="#39e581ff"] ;
33 -> 34 ;
35 [label=<gini = 0.5714<br/>samples = 7<br/>value = [2, 4, 1]<br/>class = medium>, fillcolor="#39e58166"] ;
33 -> 35 ;
36 [label=<gini = 0.0<br/>samples = 1<br/>value = [0, 0, 1]<br/>class = high>, fillcolor="#8139e5ff"] ;
2 -> 36 ;
}